-0.2492625
0.407493
0.3666368
0.09943992
-0.3894292
-0.0809563
0.2695426
0.04799728
0.342549
0.04584632
-0.3184097
-0.3958777
-0.382403
-0.6840731
0.08600824
-0.3563808
-0.3641705
-0.4608477
0.2004843
-0.2738845
-0.2005813
-0.001836264
0.2527245
0.0515597
-0.1230025
0.08924142
-0.2848725
-0.2253239
-0.1164475
0.2977917
-0.3330141
0.3355008
0.04440108
0.2552786
0.4877951
0.1342738
-0.2932638
0.302072
-0.01354558
0.1682609
0.03571491
0.3451774
0.2516977
0.5038621
0.1955657
-0.3171898
0.1350212
-0.2984483
0.1018035
-0.2741916
-0.2107842
0.3765713
0.2134434
-0.0761727
-0.4817462
-0.04512081
-0.1895291
-0.4295923
0.1947533
0.2433162
0.4407573
-0.3418514
-0.1558743
-0.02367651
0.2922693
-0.3874438
0.371059
-0.1329043
0.07918441
0.3782607
-0.214495
0.3429799
-0.117252
0.5015811
0.3844179
0.4961486
0.2055184
0.2288542
0.03022514
-0.1038873
-0.3408211
-0.1942242
0.02498633
0.3510709
0.07712484
-0.3491014
-0.04563963
0.2060081
-0.4079122
-0.06741183
0.2256121
0.2645319
0.4508578
0.0420329
-0.4495723
0.4131359
-0.2645142
-0.2431987
-0.468481
0.02615028
-0.06881853
0.04545583
0.1084246
0.2315275
-0.01245057
0.2333887
-0.1509722
-0.4392207
0.2923812
0.1436141
-0.3381858
0.1066448
0.07564638
0.0989387
0.2130059
0.2840491
0.2969388
-0.1721831
-0.4490152
-0.3952194
0.2656992
-0.465634
-0.2082766
0.1533813
0.3466676
-0.2088507
-0.4495958
-0.2466328
-0.3346847
-0.3410573
0.3775387
-0.1800238
-0.2298828
0.004806208
-0.3657803
0.3919127
-0.2565219
-0.1200221
-0.01238291
0.2719716
-0.05886897
-0.2366559
-0.2008815
-0.1601431
0.2770683
0.1066803
-0.2900033
0.3758126
0.2348114
-0.173301
-0.1120487
-0.1579815
-0.2126471
-0.1571884
-0.1289108
0.06820522
-0.04353963
-0.4939551
0.1446108
-0.1789588
-0.1947716
0.1509321
-0.3535039
-0.4068406
-0.2544434
0.1447242
-0.2006069
0.392679
-0.4776683
0.3691398
0.3113987
0.2965263
