-0.3272744
0.09324022
-0.2354265
-0.4561219
0.4609236
0.04422683
-0.3374438
0.1232795
0.3517842
-0.3384154
0.04313673
-0.4339986
-0.06146936
0.06081666
0.02505377
-0.5064561
-0.153761
-0.02368363
-0.1265367
-0.1741303
0.00747712
0.3642477
0.1656122
0.4702772
0.215417
0.04727393
0.2441172
0.08435862
-0.06205297
-0.5264378
-0.1473061
-0.4803911
0.1682974
0.1251687
-0.3301125
-0.1736062
-0.1737323
0.1003149
0.4538038
-0.4974692
0.3003195
0.4046304
0.3623094
-0.2444842
-0.04160333
-0.4710759
0.004113982
-0.3162012
-0.08097802
-0.197702
0.1307746
0.2737189
0.4881327
0.1177881
-0.4152622
-0.1274466
0.3282853
0.010845
0.141081
-0.1695912
0.5093204
-0.3206992
-0.03422551
0.02226678
0.01092802
-0.4820603
0.3608414
0.4196748
0.3304479
-0.1581392
-0.30347
0.3448126
-0.1286068
-0.2421036
0.1886999
0.2109366
0.3856013
-0.243738
-0.4684002
-0.1096185
-0.3869605
-0.2441445
0.0563509
0.1673532
-0.40136
0.1334639
-0.4346403
0.3760064
-0.008594759
-0.4459584
-0.4746964
0.4905176
0.08873522
0.3596196
-0.3376442
-0.06202125
0.1259602
0.003353726
0.2599722
-0.3226561
-0.1642109
0.2389185
0.008328673
0.2422888
0.3980248
-0.2074261
0.4786175
-0.2270947
0.1668789
0.4043904
0.02016295
-0.2623962
0.3793264
0.2981217
0.4360647
-0.4284839
0.1453435
0.2421041
-0.3607872
0.2484713
0.4653917
-0.3743623
0.2256192
-0.3654718
0.1925056
-0.02924606
-0.2666484
0.4594909
-0.4289731
-0.02219722
-0.3519196
0.08892687
0.09457367
-0.4605499
0.2986589
-0.5408681
-0.3351798
-0.02933002
0.007609311
0.2825838
0.3096823
-0.6485627
0.1185661
0.08908401
0.04187449
-0.3754179
-0.5777191
0.09989586
-0.01024246
-0.3833912
-0.2825411
0.05937065
-0.1200049
0.1580446
-0.02777416
-0.3108924
0.1042908
-0.1858442
-0.3991798
-0.4639414
-0.1498475
0.2588389
-0.5547128
-0.2898611
0.1725095
0.3412923
-0.2078568
0.03059786
-0.1801751
0.1321195
-0.001698733
-0.1929985
