-0.03347116
0.05084623
0.2404662
0.01690697
0.1123832
0.13849
0.4315719
0.265855
-0.06589417
-0.1267273
-0.02267096
-0.2058882
0.2322438
-0.2682524
-0.2783941
-0.4045025
-0.1869721
0.3544182
-0.2074907
0.1584049
-0.4672765
0.4572469
0.1805212
-0.4296829
0.277569
0.09693614
-0.3733276
0.468701
0.3237753
-0.1921021
-0.02927764
0.09038371
-0.318717
0.04307173
-0.3223992
0.3964484
0.1207412
-0.2667107
0.06942738
-0.09844597
-0.2801838
-0.4341398
0.1405185
-0.3138829
-0.2636036
-0.1018758
-0.4090879
0.3033032
-0.4973625
-0.01880214
-0.4517174
0.1142694
-0.1747832
0.2986312
-0.02198761
-0.09726041
0.241681
0.2384527
-0.2299049
0.2953421
0.1031587
0.4387549
0.4338151
0.3042916
-0.01726336
0.4117076
-0.1918397
0.06844231
0.1499548
-0.2148546
-0.1539702
-0.0253633
0.1751329
-0.3457314
-0.3486366
-0.2496438
0.1549632
0.1524084
0.3268039
-0.2579804
0.1402852
-0.1162933
0.1352662
-0.4241432
-0.1225418
-0.1857914
0.4170063
-0.3828004
-0.3925736
-0.1624393
0.4933906
0.3075678
0.3572702
-0.3905437
-0.05510585
-0.3030082
0.3781382
0.4246696
0.456941
0.3944095
-0.3786765
0.3030118
0.1395946
0.323366
-0.150507
0.1556279
0.2635939
-0.2722737
0.1879162
-0.3060762
-0.1749459
-0.2109686
-0.01726711
-0.09652942
-0.4292619
0.3347273
0.2170612
0.04712022
0.246698
-0.3005056
0.4628883
-0.4469757
-0.02620321
-0.1371205
0.3735285
-0.5574364
-0.1267834
-0.3457317
-0.4383934
-0.1253176
0.1389008
-0.2300263
0.2860943
-0.2960544
0.05419256
0.1731464
-0.3325172
-0.5068112
0.3575857
0.2255108
-0.3204368
-0.004064285
0.3982747
0.1659681
0.396226
0.312096
-0.05764572
-0.1206808
-0.4884219
-0.2247088
0.4074885
-0.3406178
-0.1584117
-0.01597515
-0.1564705
-0.1302817
-0.1441611
-0.1211732
0.2737711
0.3714737
0.1969
0.423374
-0.3609673
-0.1131499
-0.1638011
-0.07985166
0.1728789
0.2262348
-0.1549868
-0.1468052
-0.1785607
0.1047799
